29 256
D-S 0.005775 0.001360 0.004886 0.001056 0.019116 0.002697 0.019439 -0.001325 0.016111 0.008309 0.006765 0.000680 0.080952 0.036801 0.021657 -0.003851 0.180963 0.006014 -0.001666 0.001166 0.023869 0.021473 0.001588 0.033697 0.003358 0.003547 0.016887 0.016688 0.026770 -0.000905 0.002708 0.043303 0.049375 0.002031 0.000636 0.002785 0.005124 0.002238 0.000373 0.000773 0.011448 0.013773 -0.000176 -0.001667 0.001624 0.001538 -0.000652 -0.000066 0.000950 0.003950 0.059646 0.001590 0.002746 0.038996 -0.000053 0.038092 0.001344 0.021874 0.002231 0.000586 0.030947 0.000777 0.002421 0.016456 0.000309 0.025442 0.010276 0.000287 0.030958 0.004923 0.003069 0.003234 0.007028 0.002424 -0.003011 0.025682 0.163195 0.004135 0.044431 0.003097 0.002863 0.055017 0.003824 0.024988 0.000293 0.007701 0.010421 0.002771 0.005219 0.003706 0.000597 0.009814 0.006464 0.001416 0.020139 0.000522 0.003948 0.004072 -0.000422 0.007929 0.046434 0.001530 0.002287 0.010461 0.003335 0.009712 0.001489 0.004247 0.048626 0.002818 0.002348 0.028168 0.012498 0.011457 0.001666 0.003096 0.001314 -0.000079 0.003015 0.033818 0.003842 0.001239 0.002216 0.011213 0.052077 0.019408 0.001723 0.000824 0.002369 0.001450 0.003862 0.011478 0.004065 0.002599 0.001021 0.005948 0.010390 0.007629 0.015445 0.028804 0.013500 0.001082 -0.000302 0.001258 0.003812 0.038353 0.002895 0.034154 0.002965 0.002243 0.052236 0.011647 0.044639 0.001716 0.004074 0.000585 0.033379 0.002701 0.026943 0.007774 0.009789 -0.003225 0.006429 0.003157 0.037756 0.000218 0.000774 0.002795 0.014609 0.009187 0.012150 0.002026 0.001576 0.036918 0.001504 0.002962 0.000946 0.002684 0.004827 0.004021 0.003332 0.001518 0.002969 0.002273 0.023223 0.008364 0.001585 0.007516 0.017064 -0.000148 -0.000852 -0.000070 0.001556 0.006817 0.006005 0.003389 0.012582 0.004002 -0.000060 0.001792 0.001109 0.003067 -0.000685 0.048835 0.002947 0.027146 0.001332 -0.000919 0.002658 0.001232 0.027237 0.000563 0.006127 0.001973 0.003658 0.002976 0.002103 0.004614 0.001042 0.016092 0.000268 0.002272 0.015433 0.003379 0.029448 0.017685 0.002014 0.003627 -0.000317 -0.000685 0.019891 0.002055 0.001459 0.021055 0.020566 0.005777 0.002270 0.000297 0.008181 0.000345 0.031012 0.011130 0.003801 0.067443 0.001487 -0.000956 0.010515 0.003527 0.056453 0.026376 0.017433 0.002716 0.001292 0.061482 0.013980 0.037124
I-I -6.000000 3.601714 -5.628513 3.157021 -6.000000 3.348336 -6.000000 5.517081 -6.000000 -6.000000 -6.000000 -3.522341 -6.000001 -6.000001 -6.000000 6.000000 -6.000001 -6.000000 6.000001 3.182481 -6.000001 -6.000000 4.025733 -6.000000 5.616518 2.945668 -6.000000 -6.000000 -6.000000 4.812009 2.900289 -6.000000 -6.000000 3.439162 3.871184 3.243813 6.000001 4.938666 -4.712358 5.915524 -6.000000 -6.000000 2.999716 5.783492 3.718916 3.651451 4.525884 4.047889 3.046688 3.938686 -6.000000 3.678021 -4.526101 -6.000003 2.927490 -6.000001 3.092788 -6.000000 -5.421235 2.857813 -6.000000 4.345742 -5.340883 -6.000000 3.057336 -6.000000 -6.000000 4.888480 -6.000000 -6.000000 2.852260 -4.230267 -6.000000 2.945322 6.000001 -6.000001 -6.000001 5.366176 -6.000001 2.875580 -5.854227 -6.000000 3.438570 -6.000000 3.047165 -6.000000 -6.000000 -5.496812 6.000001 -6.000000 4.401430 -6.000000 -6.000000 3.525514 -6.000000 5.140976 -6.000001 -6.000000 4.710784 -6.000000 -6.000002 3.025597 2.847584 -6.000000 3.040202 -6.000000 3.468613 5.222754 -6.000000 3.462465 -5.447237 -6.000001 -6.000001 -6.000000 3.307591 2.810457 3.931349 4.064869 3.248684 -6.000003 3.237940 3.078568 3.305789 -6.000000 -6.000000 -6.000000 3.483800 3.564292 4.639298 -4.568604 4.049137 -6.000001 3.572964 -5.491786 4.510154 -6.000000 -6.000000 -6.000000 -6.000000 -6.000000 -6.000000 4.735209 4.207222 5.486853 5.176556 -6.000000 3.069972 -6.000000 3.165858 3.665241 -6.000001 -6.000000 -6.000000 6.000001 -6.000000 3.898983 -6.000000 3.503684 -6.000002 -6.000000 -6.000001 6.000000 -6.000000 3.696449 -6.000001 3.546000 3.340522 3.202168 -6.000000 -6.000000 -6.000001 -5.819825 2.925934 -6.000000 6.000001 2.830330 3.217533 3.076346 4.820749 3.149570 5.671174 3.203745 -5.140192 3.452916 -6.000001 -6.000000 -6.000000 -6.000000 -6.000000 4.618306 5.176089 4.845406 3.048438 -6.000000 -6.000000 3.024945 -6.000000 3.277638 5.350205 -5.263945 2.712166 -5.378033 5.160578 -6.000000 -4.604082 -6.000000 4.111094 5.225112 3.063336 3.379770 -6.000000 3.929338 -6.000000 3.412709 -5.994083 3.442639 4.680636 -5.900151 5.664173 -6.000000 3.062821 3.370385 -6.000000 3.295682 -6.000001 -6.000000 3.190966 4.565182 4.160546 5.514860 -6.000001 4.482142 4.791906 -6.000001 -6.000001 -5.819306 3.949060 3.978760 -6.000000 3.166828 -6.000000 -6.000000 -5.664324 -6.000001 4.710171 5.089550 -6.000000 3.194128 -6.000000 -6.000001 -6.000000 3.106077 2.953786 -6.000000 -6.000000 -6.000001
I-I,I-I 0.003041 0.002472 0.002141 0.000436 0.002190 0.002909 0.002179 0.001419 0.000345 0.002617 0.001783 0.000447 0.001875 0.001920 0.001402 0.001640 0.000167 0.000627 0.001276 0.003353 0.001752 0.000284 0.003703 0.002170 0.003132 0.001202 0.001755 0.003772 0.001034 0.002360 0.002661 0.002003 0.000770 0.001321 0.002604 0.001064 0.002835 0.001090 0.003426 0.002701 0.002593 0.002717 0.002899 0.001661 0.000733 0.001206 0.002306 0.001630 0.001151 0.001310 0.002581 0.003107 0.003741 0.002259 0.001321 0.002672 0.001817 0.003729 0.003322 0.000259 0.000824 0.000763 0.003518 0.003391 0.003108 0.003221 0.002542 0.000490 0.000449 0.001269 0.000324 0.001010 0.001894 0.003346 0.003840 0.002396 0.002755 0.002414 0.000405 0.001316 0.002864 0.002332 0.003861 0.000952 0.001259 0.001577 0.002263 0.003401 0.003175 0.003499 0.001099 0.001285 0.001331 0.001672 0.000564 0.000423 0.003205 0.000115 0.001215 0.000593 0.003725 0.001616 0.001905 0.001300 0.001484 0.000538 0.000363 0.000144 0.003231 0.000743 0.003568 0.003143 0.001980 0.003380 0.003535 0.000206 0.000272 0.000652 0.003051 0.002006 0.003604 0.003381 0.002101 0.002381 0.001678 0.000992 0.001116 0.001330 0.003124 0.003212 0.002909 0.001319 0.002074 0.002056 0.001972 0.003074 0.001826 0.000441 0.001272 0.001290 0.001391 0.003133 0.000449 0.001973 0.003341 0.001278 0.002813 0.000929 0.002826 0.003768 0.002184 0.001960 0.000762 0.000344 0.002613 0.003628 0.000123 0.002983 0.001772 0.001316 0.001958 0.002481 0.001484 0.003739 0.002524 0.001022 0.002834 0.001647 0.000991 0.002554 0.000794 0.003827 0.002189 0.002304 0.001036 0.003043 0.003112 0.000365 0.003830 0.000198 0.001485 0.001600 0.001795 0.003497 0.002899 0.001097 0.000173 0.003522 0.000663 0.001588 0.003065 0.000305 0.003286 0.002233 0.000300 0.003852 0.001068 0.000193 0.002543 0.001529 0.000334 0.002235 0.001864 0.000981 0.002880 0.001378 0.000419 0.000311 0.003431 0.000425 0.001904 0.000903 0.000318 0.000238 0.003162 0.000596 0.001075 0.000420 0.001801 0.002517 0.002446 0.002137 0.001143 0.002111 0.002344 0.000153 0.000373 0.001244 0.000069 0.003175 0.001116 0.003196 0.000933 0.003748 0.001403 0.002774 0.000409 0.002477 0.003650 0.001002 0.002208 0.001398 0.001544 0.000046 0.001092 0.000933 0.000747 0.001256 0.003085 0.003651 0.003345 0.002896 0.000688 0.000325 0.001362 0.000363
I-I,I-I,I-I 0.001189 0.003723 0.002984 0.000478 0.003169 0.002773 0.001132 0.002213 0.003056 0.003009 0.002465 0.002810 0.002970 0.000007 0.001488 0.000061 0.001534 0.001631 0.000649 0.001079 0.001616 0.000236 0.002823 0.003475 0.000490 0.000575 0.001197 0.001613 0.002660 0.000093 0.003744 0.001570 0.003075 0.002535 0.001957 0.003216 0.003173 0.000914 0.003330 0.002772 0.002654 0.002270 0.002673 0.000797 0.001768 0.001344 0.002868 0.003515 0.002360 0.001275 0.003516 0.003062 0.002034 0.002420 0.001602 0.003866 0.003399 0.000063 0.002759 0.001291 0.003698 0.001668 0.001983 0.002689 0.001792 0.001361 0.001306 0.002934 0.000550 0.003448 0.003071 0.003876 0.000031 0.001189 0.001718 0.000289 0.003301 0.001245 0.002197 0.003277 0.001889 0.003872 0.001046 0.001835 0.000742 0.000774 0.000475 0.001743 0.002549 0.002720 0.003036 0.002438 0.003260 0.000808 0.003224 0.003687 0.001424 0.001828 0.003212 0.000181 0.003065 0.003189 0.003384 0.003645 0.003130 0.002293 0.003506 0.001958 0.001807 0.001983 0.001536 0.002181 0.000320 0.000488 0.003675 0.002187 0.001364 0.000983 0.001648 0.003014 0.000180 0.000234 0.002424 0.001621 0.001240 0.002384 0.002509 0.003164 0.002689 0.001357 0.002228 0.003103 0.003083 0.000989 0.003022 0.001791 0.002375 0.002145 0.002828 0.003049 0.000053 0.000398 0.003603 0.001308 0.003473 0.003899 0.003565 0.001899 0.002828 0.002073 0.002562 0.002590 0.002890 0.000522 0.002054 0.000420 0.000356 0.000831 0.000716 0.003892 0.000048 0.001513 0.001070 0.002282 0.003622 0.002871 0.001671 0.003097 0.002569 0.002667 0.000995 0.002332 0.002000 0.001302 0.003896 0.002520 0.001756 0.000453 0.003883 0.002759 0.002777 0.000318 0.003720 0.003132 0.001604 0.003529 0.001854 0.001418 0.003443 0.001329 0.003858 0.002361 0.003324 0.002925 0.003065 0.002359 0.003188 0.001761 0.000289 0.003103 0.001926 0.000494 0.003723 0.003216 0.002514 0.001705 0.001485 0.000730 0.003369 0.001029 0.003659 0.003332 0.003430 0.002195 0.003437 0.000692 0.001194 0.003380 0.000605 0.001258 0.000459 0.003855 0.001626 0.003077 0.000989 0.000888 0.001085 0.001962 0.000384 0.002459 0.000857 0.001491 0.001689 0.001215 0.002018 0.003875 0.002926 0.000956 0.003481 0.001295 0.003311 0.001285 0.003667 0.000344 0.002229 0.001389 0.003303 0.000727 0.003691 0.000093 0.000263 0.003069 0.001038 0.000699 0.002309 0.000456
S-S -6.000000 0.168949 -6.000000 2.270557 4.955518 1.908788 5.214580 -6.000000 -6.000000 -6.000000 4.101251 -5.762939 -6.000001 -6.000000 -6.000000 -6.000000 6.000001 -6.000000 -6.000002 2.584727 5.156242 -6.000001 -6.000000 5.250953 -6.000002 2.516268 -6.000000 -6.000000 -6.000000 -6.000001 2.252650 5.909713 6.000001 1.768285 -6.000000 2.249259 -6.000001 -6.000000 -6.000000 -6.000002 -6.000001 -6.000000 2.163202 -6.000002 -1.907185 0.870184 -6.000000 -6.000000 2.577808 -4.705894 6.000000 -0.158762 -4.463202 -6.000002 2.281114 -6.000000 2.756882 -6.000000 -5.690688 2.609837 -6.000001 -6.000000 -6.000000 -6.000001 2.579862 -6.000001 -6.000000 -6.000000 5.560448 -6.000001 2.638048 -6.000000 -6.000000 2.400431 -6.000001 5.301031 6.000002 -6.000001 -6.000002 2.356405 -0.735347 6.000000 1.400327 5.054724 2.464658 -6.000000 -6.000000 -6.000000 -6.000001 -6.000000 -6.000000 -6.000001 -6.000000 0.359040 5.147010 -6.000000 -6.000000 -5.920793 -6.000001 -6.000000 -6.000001 2.482276 2.687924 -6.000000 2.252844 -6.000000 -6.000000 -6.000000 -6.000003 0.992826 -6.000000 5.435979 4.550393 -6.000000 1.722802 2.459584 -6.000000 -5.077250 2.293977 5.484986 -3.644116 2.544741 2.089371 -6.000000 6.000000 5.037305 0.112928 -4.985115 -6.000000 -4.014585 -5.978175 -6.000001 1.044857 -6.000000 -6.000000 3.945877 -6.000000 -6.000000 -6.000000 5.394509 4.855238 -6.000000 -6.000000 -6.000001 -6.000000 -6.000000 2.362312 -6.000000 2.096738 1.550547 5.954009 -6.000001 5.802556 -6.000000 -6.000000 -6.000000 -6.000002 1.436150 5.326008 -6.000000 -6.000000 -6.000003 -6.000000 1.088858 5.724059 0.527015 1.834698 2.119045 4.549438 3.910535 -6.000000 -6.000000 2.521842 5.734400 -6.000000 2.618814 2.345555 2.397890 -6.000000 2.673910 -6.000001 2.295745 -5.562479 2.198970 5.159538 -6.000000 -6.000000 -6.000000 -6.000000 -6.000002 -6.000000 -6.000000 2.667409 3.647117 -6.000000 2.633105 -6.000001 1.838117 -6.000000 -5.134498 2.703907 -5.799694 -6.000000 -6.000001 -5.662068 5.375552 -5.728158 -6.000001 2.499072 2.084155 -6.000001 -5.208680 -6.000000 1.591351 3.429323 0.412761 -6.000000 -6.000000 -6.000000 -6.000001 2.566124 2.377687 4.959649 -3.668105 -6.000002 4.713191 2.581151 -6.000000 -5.054410 -6.000000 5.046363 -6.000000 -6.000000 4.780164 5.148587 -6.000000 -6.000000 -5.826254 -6.000001 2.238751 5.516959 -6.000000 -2.643686 6.000001 -6.000001 -6.000002 -6.000000 2.560578 5.812509 5.278484 4.781940 2.405390 2.448364 6.000000 4.483976 -6.000001
S-S,S-S 0.001323 0.003661 0.001959 0.003420 0.002668 0.002171 0.001046 0.002551 0.002557 0.001766 0.000886 0.002912 0.000779 0.000984 0.001410 0.003128 0.000228 0.002161 0.002907 0.000096 0.002831 0.001900 0.000033 0.001087 0.002701 0.001692 0.002330 0.001063 0.002647 0.001114 0.002753 0.001841 0.002340 0.000490 0.001233 0.003021 0.002145 0.000357 0.000434 0.002125 0.001458 0.001465 0.001264 0.000427 0.001530 0.002974 0.003650 0.000592 0.000760 0.003671 0.003856 0.002717 0.002897 0.000386 0.003741 0.000369 0.001777 0.003222 0.003385 0.003017 0.002115 0.000555 0.001280 0.001467 0.001890 0.001107 0.003903 0.001796 0.003382 0.001819 0.003772 0.000175 0.001864 0.003378 0.001122 0.000208 0.003044 0.001809 0.001650 0.003514 0.002235 0.000315 0.003827 0.001998 0.003094 0.002319 0.003037 0.003876 0.001011 0.002141 0.003819 0.000415 0.003769 0.001025 0.001371 0.003646 0.002985 0.001538 0.003042 0.003805 0.000000 0.000774 0.001188 0.000778 0.001223 0.003668 0.002656 0.003650 0.001283 0.002550 0.001645 0.000773 0.000254 0.003700 0.000118 0.003881 0.002458 0.002016 0.000127 0.003653 0.002712 0.003560 0.002335 0.000898 0.003298 0.002232 0.003500 0.003839 0.002382 0.001994 0.000360 0.003547 0.001270 0.001233 0.002962 0.002190 0.003617 0.002815 0.003417 0.000212 0.000534 0.003186 0.000847 0.001670 0.000743 0.000845 0.002806 0.000588 0.000819 0.002690 0.000350 0.000615 0.003353 0.003233 0.003135 0.001776 0.000543 0.003339 0.002604 0.002032 0.001944 0.002529 0.002997 0.000903 0.000900 0.000738 0.001799 0.003318 0.000181 0.001216 0.003462 0.000916 0.000615 0.000397 0.002339 0.003033 0.001726 0.002121 0.000377 0.000175 0.000338 0.000470 0.002112 0.003310 0.002125 0.002701 0.003703 0.001470 0.002082 0.001125 0.000488 0.000257 0.001740 0.001650 0.003225 0.003011 0.003428 0.003381 0.000398 0.001819 0.003437 0.000255 0.002358 0.000798 0.002190 0.003891 0.002124 0.001796 0.000255 0.003793 0.002933 0.000656 0.003649 0.003667 0.001450 0.000127 0.001766 0.001614 0.001275 0.003123 0.003704 0.002597 0.001092 0.003737 0.001515 0.001142 0.001261 0.002329 0.002031 0.003559 0.003576 0.000146 0.002424 0.001530 0.002618 0.000886 0.000377 0.001496 0.000700 0.000577 0.003504 0.000803 0.002829 0.003713 0.001436 0.003162 0.002136 0.000652 0.003812 0.003436 0.003438 0.003159 0.003757 0.001362 0.002061 0.002673
S-S,S-S,S-S 0.001275 0.003330 0.002037 0.002501 0.000804 0.003219 0.000196 0.002242 0.002729 0.000766 0.000708 0.003434 0.003108 0.002908 0.002986 0.000889 0.000314 0.001202 0.001294 0.001491 0.003554 0.001078 0.001408 0.000089 0.002319 0.003588 0.003767 0.001201 0.000037 0.003359 0.001911 0.000959 0.002604 0.000893 0.003457 0.000951 0.001386 0.001619 0.001609 0.001665 0.002895 0.003690 0.000094 0.002775 0.001277 0.002841 0.002095 0.003826 0.002279 0.001190 0.001728 0.002002 0.003739 0.000817 0.002900 0.001228 0.002907 0.001664 0.002861 0.001771 0.002143 0.002240 0.002896 0.003229 0.003134 0.002774 0.002915 0.000468 0.000566 0.001262 0.003513 0.001964 0.003599 0.000902 0.002494 0.002865 0.001098 0.002343 0.003653 0.002117 0.001785 0.001574 0.001217 0.002081 0.001201 0.003397 0.003681 0.003523 0.000252 0.000276 0.003690 0.002701 0.001101 0.001203 0.003236 0.001598 0.002685 0.003513 0.000468 0.000698 0.001015 0.001532 0.000326 0.003263 0.001288 0.002537 0.002854 0.002356 0.001478 0.001060 0.001304 0.000748 0.001305 0.000651 0.000101 0.000752 0.000496 0.001290 0.000513 0.002260 0.000023 0.001340 0.002044 0.002765 0.000901 0.003059 0.000672 0.002894 0.002432 0.002552 0.000045 0.003525 0.001948 0.001169 0.000022 0.001434 0.002823 0.000073 0.003592 0.001028 0.001349 0.001674 0.000185 0.002212 0.003828 0.003785 0.003761 0.002281 0.001796 0.002712 0.002506 0.002348 0.001916 0.001026 0.002827 0.000225 0.002510 0.002348 0.002016 0.000642 0.001853 0.002230 0.001385 0.000135 0.001985 0.001445 0.001165 0.000690 0.000910 0.003364 0.001069 0.002949 0.003085 0.000689 0.001908 0.000508 0.003825 0.001404 0.003234 0.002220 0.003684 0.003529 0.003356 0.001838 0.001358 0.001664 0.002206 0.001629 0.003822 0.001670 0.003607 0.001582 0.000339 0.000271 0.002377 0.003568 0.001032 0.003524 0.000146 0.002374 0.001322 0.001120 0.001621 0.001168 0.000483 0.003383 0.001633 0.001887 0.000617 0.001552 0.000219 0.003145 0.003879 0.003763 0.002530 0.002496 0.002002 0.000236 0.002194 0.002879 0.002312 0.000445 0.003533 0.001531 0.003863 0.000771 0.002565 0.003822 0.003743 0.003709 0.000442 0.000069 0.001863 0.000535 0.003876 0.000073 0.000137 0.000751 0.003164 0.000578 0.000843 0.001012 0.002097 0.000056 0.003514 0.002521 0.002464 0.002526 0.002878 0.001960 0.000490 0.003707 0.000142 0.001804 0.000553 0.001647
P-P 3.168323 0.424098 2.416179 0.091588 0.873509 0.203782 1.025239 -2.860114 4.278395 3.397972 0.426406 1.749061 6.000000 5.169299 4.643473 -4.381211 -6.000005 3.430567 -6.000003 0.534403 -6.000001 4.561318 1.105702 -6.000000 -6.000001 0.734372 4.168569 4.211932 4.656110 0.732173 0.453962 3.147585 2.327341 0.619392 1.230800 0.579511 -6.000000 -5.558114 2.114988 -6.000006 4.063201 4.011212 0.626898 -3.847328 -1.440747 -3.061086 0.230616 0.576329 0.462543 -3.940918 -6.000005 0.288171 1.956962 5.167928 0.554511 5.162549 0.733613 4.602045 2.410812 0.553902 5.055683 -2.893898 2.319721 4.783006 -0.618947 4.823893 3.651563 -4.782641 -6.000000 3.853246 0.612830 2.011803 3.609867 0.565346 -4.458485 -6.000001 -6.000007 -6.000000 5.753452 0.459519 2.450188 -6.000000 0.355935 -6.000002 0.569377 3.237467 4.322112 2.323365 -6.000010 3.358576 0.162198 4.291906 3.315206 0.403478 -6.000001 0.551184 3.812323 2.822870 0.207477 3.427818 5.979968 0.261852 0.463281 4.201097 -2.259963 4.039290 0.862065 -5.945271 5.921730 0.366626 2.406792 2.181242 0.894264 3.745427 0.341217 0.402993 0.357723 -2.509337 0.668176 -6.000001 0.881163 0.195282 0.873622 3.829195 -6.000005 -6.000001 0.459688 0.187432 -5.253910 1.847769 -3.951877 4.756733 -4.471436 2.481981 -4.528310 1.642130 3.509086 3.956978 4.013402 -6.000000 0.949273 -5.002745 0.154137 -5.645244 -5.753517 5.649783 -0.949600 5.100697 -2.203436 -2.848813 -6.000004 4.227265 -6.000001 -6.000010 2.991482 1.333609 5.595242 0.478758 2.408399 3.389003 3.973990 -1.104612 2.831076 -1.942076 -6.000000 0.364338 0.393658 -2.319222 1.758435 2.085316 4.662892 2.784369 0.662432 -6.000003 -6.000000 0.470120 -1.962596 -0.796292 -5.641120 -1.820487 -6.000002 -2.816716 1.805498 0.200829 -3.233088 3.669379 3.005612 3.462332 4.160323 -4.508411 -3.075268 -4.670625 0.209356 1.357492 3.067687 0.417341 4.178408 0.855888 -5.598113 2.311408 0.553046 2.206679 1.144805 5.441706 1.649945 -6.000000 -4.456601 -2.553276 -2.541163 -3.394005 4.731306 -3.978868 3.432595 -3.929365 1.710290 0.323165 -1.957194 2.738970 -6.000001 4.420300 0.442409 -0.513689 -2.770705 0.535827 5.193336 2.714317 0.662867 -5.039988 -2.694594 -3.622860 -6.000000 -4.559701 -3.420802 -5.991674 0.519460 2.619004 0.940557 -3.564229 4.493451 0.655970 -6.000000 3.813344 2.414578 2.837465 -4.957938 -2.639416 4.542613 0.781429 -6.000001 2.400750 2.167544 -2.325934 0.431507 -6.000002 -3.617259 5.157389
P-P,P-P 2.713262 0.135658 2.353740 -0.101497 3.107653 0.000241 3.363969 2.232783 3.841208 2.760906 1.964328 1.525549 5.578106 4.689793 4.206720 2.758228 -6.000012 3.166073 -6.000000 0.095041 -5.974837 4.013945 1.110269 -6.000003 -5.959665 0.249925 3.765520 3.693878 4.195310 1.749573 0.162203 4.239534 4.398395 0.176927 1.480065 0.091552 -6.000006 -5.097988 1.948430 -6.000000 3.750758 3.371269 0.314844 2.219887 -1.046381 -2.517070 1.006921 0.726866 0.089177 -3.394280 -6.000005 0.259298 1.197104 4.686916 0.171914 4.745341 0.179877 4.157018 1.880844 0.186949 4.601469 -2.109279 2.456150 4.368192 -0.398073 4.206515 3.071645 -4.243842 -6.000001 3.888380 0.100179 1.860926 3.236979 0.155095 2.737804 -6.000001 -6.000008 -5.735361 5.257995 0.178712 1.214072 -6.000003 0.259570 -5.922344 0.163539 2.688946 4.075265 2.072167 -6.000000 3.016579 0.883716 3.903841 3.080109 0.192260 -5.830037 1.848181 3.699239 2.121583 1.740601 3.005281 5.507074 -0.035935 0.127114 3.814769 -1.826814 3.808931 0.672198 -5.529242 5.429494 0.037769 2.189769 3.781467 2.549807 3.248271 0.085451 0.088693 0.714929 -1.943820 0.121454 -6.000000 0.337785 -0.052347 0.330709 3.070977 -6.000002 -5.757793 0.203520 0.109615 -4.931878 1.056764 -3.604827 4.605962 -4.097589 2.373643 -3.982409 1.951445 3.008277 3.656535 3.522591 -6.000002 3.051726 -4.544947 0.920260 -5.123398 -5.288483 5.106901 -0.726956 4.569199 -1.651258 -2.482138 -6.000008 3.995532 -6.000001 -6.000009 2.628788 1.035821 5.105329 0.095723 3.651532 2.904927 3.344901 2.989113 2.293734 -1.466924 -6.000004 0.209851 0.078886 -1.786691 2.752693 2.067891 4.231483 2.410171 0.189056 -6.000003 -6.000005 0.105370 -1.459658 -0.596135 -5.282589 -1.554849 -6.000002 -2.370273 1.442746 -0.131333 3.579466 3.135702 2.960264 3.007681 3.703168 -4.054088 1.249568 -4.105482 -0.086965 1.265285 2.591691 0.082978 3.700969 0.319443 -5.105744 1.451185 0.138680 1.751046 2.207680 4.948724 1.460032 -6.000001 -4.103859 1.644612 -2.086948 -2.973869 4.277225 -3.633595 2.969655 -3.560159 1.538702 0.123584 1.101491 2.340736 -6.000004 3.905447 0.093501 -0.346891 3.279637 0.228380 4.682538 2.701629 0.170349 -4.534818 -2.151274 1.929665 -5.848288 -4.033319 -2.693108 -5.584684 3.379207 2.187254 1.288992 -3.105875 4.219634 0.274425 -6.000009 3.298083 1.325080 4.713417 -4.452477 1.679801 4.385625 0.246421 -6.000001 3.611572 2.661226 -1.859257 0.069079 -6.000009 3.124725 4.680284
P-P,P-P,P-P 0.000576 0.000060 0.002414 0.000373 0.000399 0.003178 0.001928 0.000536 0.003447 0.001075 0.001508 0.001917 0.000227 0.000908 0.001358 0.002700 0.000503 0.003901 0.002168 0.000159 0.000587 0.002016 0.002824 0.002509 0.000274 0.003782 0.001224 0.002480 0.003651 0.003781 0.002725 0.001462 0.000979 0.001092 0.003391 0.003083 0.000832 0.001439 0.002033 0.000916 0.003571 0.003329 0.002880 0.002312 0.002049 0.000860 0.002851 0.003205 0.001942 0.001697 0.000699 0.000707 0.001488 0.001930 0.003189 0.002884 0.002249 0.003635 0.000834 0.001566 0.000067 0.001923 0.002017 0.000417 0.001850 0.001748 0.002509 0.003015 0.000580 0.000871 0.003430 0.001872 0.003126 0.000790 0.001227 0.001007 0.000017 0.003649 0.000340 0.002766 0.003331 0.002790 0.003624 0.002641 0.001581 0.000205 0.002168 0.003717 0.000991 0.001708 0.001448 0.001198 0.002760 0.002012 0.003112 0.000535 0.001412 0.001033 0.000709 0.002753 0.002007 0.003680 0.001174 0.003656 0.000634 0.003559 0.003425 0.002515 0.003806 0.003786 0.002356 0.001865 0.000028 0.001586 0.000688 0.003017 0.003652 0.001572 0.001838 0.003522 0.003900 0.002194 0.000470 0.003564 0.002896 0.000726 0.002133 0.000949 0.001770 0.003680 0.000244 0.002035 0.001173 0.000989 0.002199 0.002310 0.002326 0.000191 0.000161 0.001822 0.002155 0.003162 0.001206 0.002395 0.001124 0.001434 0.000794 0.003508 0.003570 0.000032 0.003269 0.000888 0.001293 0.002145 0.003046 0.003264 0.003893 0.001735 0.003860 0.000731 0.002354 0.001071 0.003644 0.000516 0.003345 0.000922 0.001558 0.002927 0.001050 0.003472 0.001325 0.000877 0.003725 0.000992 0.000535 0.002799 0.000420 0.001481 0.000404 0.003803 0.001061 0.003009 0.003329 0.001014 0.003225 0.003109 0.000776 0.000634 0.000090 0.003481 0.001533 0.001927 0.001748 0.001780 0.003430 0.002521 0.002102 0.000486 0.003430 0.001120 0.001117 0.003564 0.002956 0.003280 0.000810 0.001953 0.000064 0.003029 0.003897 0.003871 0.000941 0.002846 0.003355 0.002081 0.001366 0.000155 0.000355 0.001125 0.001642 0.002207 0.001534 0.000158 0.001331 0.002581 0.000016 0.000484 0.001654 0.002919 0.000551 0.003382 0.002058 0.002205 0.001708 0.000001 0.000346 0.001708 0.003873 0.001433 0.003223 0.001358 0.002980 0.001315 0.000125 0.000571 0.003721 0.003459 0.003062 0.003579 0.000296 0.000573 0.000623 0.003874 0.002684 0.002162 0.002555 0.000294
D-I 0.008477 0.003168 0.007180 0.000952 0.000976 0.002325 -0.000368 0.021366 0.021653 0.008677 0.003578 0.003765 0.104989 0.048889 0.028912 0.048619 0.038297 0.010125 0.027974 0.001009 0.012379 0.025509 0.004659 0.027095 0.021446 0.000214 0.019822 0.018400 0.030492 0.012009 0.001431 0.003537 -0.001131 0.003516 0.004500 0.001563 0.039750 0.012791 0.003679 0.024021 0.021165 0.012668 0.004029 0.028740 0.002353 0.002434 0.010914 0.005810 0.003036 0.003050 0.012424 0.002310 0.001742 0.044663 0.001908 0.050153 0.001225 0.026386 0.004553 0.003000 0.040978 0.003300 0.008233 0.032890 0.003391 0.028115 0.012247 0.006930 0.004737 0.020259 0.002352 0.002966 0.013834 0.002505 0.048696 0.010783 0.029565 0.016733 0.079530 0.001599 0.000513 0.017882 0.002367 0.019541 -0.000027 0.010767 0.026891 0.006440 0.030577 0.011068 0.007072 0.021517 0.009614 0.002996 0.005611 0.016303 0.015805 0.005050 0.012501 0.011282 0.097588 0.001544 0.002128 0.020325 0.002653 0.018475 0.003807 0.018586 0.084530 0.001115 0.004898 0.006848 0.002321 0.012240 0.003021 -0.000109 0.004010 0.003119 0.003651 0.018890 0.001461 0.003678 0.000733 0.011126 0.010339 0.011111 0.001330 0.001832 0.005911 0.001649 0.002401 0.040148 0.004802 0.007091 0.007263 0.005335 0.010571 0.015838 0.016364 0.012281 0.001242 0.009594 0.005298 0.010746 0.014452 0.067545 0.002456 0.038941 0.002742 0.003785 0.027928 0.023074 0.022084 0.032283 0.006013 0.005445 0.064309 0.002627 0.008195 0.009762 0.013756 0.036463 0.005770 0.002951 0.014237 0.001168 0.001153 0.003385 0.002235 0.003692 0.026994 0.009032 0.002544 0.013970 0.021825 0.003526 0.001252 0.003586 0.009783 0.003392 0.023044 0.002567 0.005568 0.003927 0.000014 0.012219 0.010348 0.011242 0.018326 0.004022 0.015227 0.006006 0.001525 0.001978 0.007027 0.000632 0.019441 0.002599 0.005527 0.005591 0.000543 0.005899 0.018539 0.060775 0.002791 0.013889 0.004054 0.016777 0.002056 0.003951 0.031248 -0.000107 0.011058 0.002329 0.004975 0.003878 0.011225 0.008655 0.016116 0.020422 0.001117 0.000604 0.000805 0.002073 0.046165 0.004969 0.000367 0.011452 0.002834 0.024494 0.007858 0.002909 0.002980 0.017043 0.000888 0.007558 0.005877 -0.000377 0.029376 0.003800 0.007502 0.014128 0.002079 -0.003678 0.004727 0.015500 0.034352 0.002101 -0.000632 0.005539 0.003482 0.000411 0.000130 0.015132 0.002745 0.047064
D-I,I-I 0.000334 0.001606 0.001442 0.000059 0.001636 0.003375 0.003537 0.000768 0.001429 0.000129 0.002727 0.001221 0.002223 0.000413 0.001319 0.003566 0.003816 0.002978 0.000199 0.003558 0.000575 0.002134 0.003127 0.001413 0.001394 0.000379 0.001887 0.002147 0.002422 0.000896 0.002081 0.002570 0.000855 0.000166 0.003218 0.002056 0.002273 0.002575 0.003492 0.001860 0.000133 0.000119 0.000470 0.003402 0.002710 0.002394 0.003445 0.001632 0.003885 0.000079 0.002836 0.001237 0.001700 0.001708 0.002581 0.002551 0.001983 0.000566 0.000871 0.002806 0.001546 0.002765 0.001537 0.002474 0.001630 0.002184 0.000612 0.003314 0.002959 0.002965 0.001998 0.003212 0.001794 0.002290 0.002815 0.000023 0.003010 0.002923 0.003737 0.003601 0.003212 0.001525 0.000378 0.002932 0.000003 0.001195 0.002732 0.001912 0.000439 0.003385 0.001896 0.001647 0.003762 0.000980 0.000680 0.002182 0.001213 0.001729 0.003683 0.001075 0.003451 0.003796 0.002493 0.002279 0.000330 0.001684 0.000940 0.002117 0.002247 0.000021 0.002585 0.000527 0.002868 0.001126 0.002355 0.000764 0.002321 0.002257 0.002989 0.002098 0.000682 0.003577 0.001963 0.003412 0.001816 0.002123 0.003378 0.002738 0.002319 0.002290 0.002686 0.003836 0.002923 0.000448 0.001213 0.000505 0.003455 0.000152 0.003681 0.000058 0.003384 0.002783 0.001777 0.003061 0.001444 0.001891 0.000213 0.001237 0.002702 0.000243 0.003094 0.002483 0.002682 0.002536 0.002400 0.003743 0.000126 0.001929 0.002780 0.000095 0.003317 0.002829 0.002392 0.002026 0.001551 0.002161 0.000259 0.002135 0.003799 0.003175 0.002484 0.003310 0.000535 0.003301 0.000113 0.001571 0.001126 0.002460 0.003262 0.003812 0.002454 0.001309 0.000838 0.002183 0.001071 0.003378 0.000663 0.000546 0.000438 0.001130 0.001732 0.001490 0.001343 0.003738 0.001370 0.001006 0.001703 0.002609 0.000501 0.001489 0.003025 0.002694 0.003136 0.001468 0.002732 0.001278 0.003555 0.003494 0.001265 0.000495 0.000543 0.001815 0.001828 0.003088 0.003389 0.000117 0.000510 0.000064 0.002635 0.003052 0.000978 0.002536 0.001694 0.000789 0.001720 0.001115 0.002516 0.002641 0.000959 0.000040 0.002855 0.002647 0.000792 0.001195 0.003153 0.001201 0.002158 0.001600 0.002884 0.003057 0.001534 0.000720 0.001250 0.002029 0.002062 0.002584 0.000303 0.002272 0.002104 0.002704 0.002065 0.000365 0.003526 0.000282 0.002121 0.001874
D-I,I-I,I-I 0.003788 0.001330 0.001449 0.003181 0.001376 0.000783 0.001016 0.001806 0.000618 0.000223 0.003201 0.000990 0.002904 0.002527 0.000035 0.000791 0.001104 0.000996 0.000251 0.001301 0.001729 0.000437 0.000751 0.002571 0.003247 0.002564 0.001473 0.003864 0.001465 0.001220 0.003480 0.003116 0.001561 0.001137 0.002717 0.000496 0.002403 0.003831 0.001646 0.001910 0.002393 0.002795 0.000977 0.002303 0.003869 0.003306 0.000099 0.002929 0.000283 0.000984 0.000351 0.001455 0.000376 0.003581 0.000565 0.000853 0.002242 0.001061 0.001811 0.003584 0.003040 0.003577 0.001118 0.000304 0.000180 0.001178 0.003316 0.001990 0.003365 0.001286 0.003292 0.000259 0.003780 0.000460 0.003788 0.002219 0.000961 0.003751 0.002937 0.002415 0.001057 0.003360 0.002570 0.001396 0.003456 0.000228 0.001925 0.003524 0.000352 0.002884 0.003741 0.002089 0.000702 0.003021 0.001645 0.001598 0.002712 0.001529 0.001627 0.001219 0.001743 0.002288 0.002721 0.001932 0.002699 0.001780 0.000670 0.003725 0.003515 0.001299 0.003140 0.003104 0.001457 0.000693 0.002277 0.002474 0.003670 0.001929 0.002466 0.003390 0.001382 0.003308 0.003869 0.000133 0.000755 0.001335 0.001846 0.002137 0.003760 0.001506 0.001813 0.001065 0.003309 0.000494 0.001359 0.002461 0.002054 0.002520 0.001780 0.000441 0.002546 0.000642 0.003791 0.003206 0.000940 0.000938 0.000783 0.001597 0.000216 0.001701 0.003225 0.000008 0.003732 0.002479 0.001153 0.003641 0.001625 0.001817 0.002565 0.002761 0.003902 0.000055 0.000677 0.001373 0.002120 0.002686 0.002987 0.000074 0.000527 0.000250 0.002452 0.000930 0.003378 0.003279 0.002727 0.000760 0.000043 0.002594 0.003714 0.003518 0.000219 0.001991 0.001955 0.000439 0.002920 0.003407 0.003309 0.003699 0.001726 0.001155 0.003168 0.003313 0.001409 0.003246 0.003898 0.003463 0.002761 0.002836 0.001991 0.000373 0.000927 0.000160 0.002290 0.003064 0.000709 0.002942 0.001853 0.000733 0.000964 0.001807 0.003804 0.003051 0.003409 0.001273 0.003091 0.001454 0.000015 0.000765 0.001447 0.001245 0.002266 0.001280 0.001806 0.000727 0.001612 0.003562 0.003789 0.003114 0.003296 0.000136 0.001715 0.003832 0.001025 0.000055 0.003215 0.002830 0.002949 0.002970 0.003733 0.003771 0.002663 0.001453 0.002236 0.002731 0.003863 0.002394 0.001244 0.003496 0.002370 0.002303 0.003187 0.002543 0.002811 0.002262 0.000302 0.000445
D-S,S-S 0.003162 0.003277 0.000508 0.002419 0.001569 0.000724 0.000739 0.000708 0.003823 0.003123 0.003108 0.001498 0.002840 0.000901 0.002410 0.001920 0.000660 0.001900 0.000214 0.001341 0.001979 0.002408 0.002196 0.002194 0.000195 0.001642 0.001762 0.003606 0.003493 0.003177 0.002551 0.002663 0.002615 0.000181 0.001485 0.000884 0.000542 0.001887 0.003569 0.002314 0.001326 0.002136 0.000110 0.002291 0.001942 0.003865 0.002117 0.001786 0.000919 0.003536 0.000827 0.001724 0.002889 0.002982 0.003583 0.002574 0.003884 0.002961 0.002584 0.003844 0.000554 0.000646 0.002651 0.003773 0.001904 0.002437 0.001160 0.003397 0.003729 0.002821 0.001352 0.002652 0.002881 0.000449 0.003503 0.003759 0.000125 0.001701 0.002572 0.001463 0.000264 0.002158 0.000279 0.002252 0.002955 0.003666 0.001003 0.002092 0.003088 0.002732 0.000369 0.003744 0.002655 0.002295 0.002043 0.001981 0.002678 0.002131 0.000195 0.003419 0.003589 0.001092 0.002072 0.000652 0.000499 0.001480 0.002893 0.000649 0.003536 0.003032 0.001260 0.000107 0.003540 0.000551 0.000583 0.002374 0.001122 0.002949 0.002125 0.000471 0.003212 0.000174 0.000146 0.003728 0.000115 0.001528 0.003311 0.001462 0.000564 0.003888 0.001321 0.000915 0.003342 0.002082 0.000599 0.000941 0.002835 0.001168 0.002677 0.000166 0.001445 0.002062 0.003594 0.001594 0.002565 0.001433 0.003885 0.000765 0.002906 0.002658 0.003269 0.001627 0.002817 0.000789 0.002912 0.000132 0.003826 0.002738 0.000053 0.000422 0.002985 0.000349 0.003686 0.001167 0.003790 0.002979 0.003214 0.003644 0.002820 0.001020 0.003229 0.002137 0.001692 0.002726 0.001263 0.003642 0.002683 0.000530 0.002176 0.002420 0.002795 0.001080 0.000733 0.000533 0.002481 0.003604 0.002536 0.002299 0.002127 0.002074 0.002516 0.001393 0.002957 0.001812 0.000773 0.002029 0.003356 0.000264 0.001862 0.000311 0.001991 0.002359 0.002478 0.003035 0.002457 0.000615 0.002888 0.000622 0.001430 0.000222 0.000700 0.000598 0.001008 0.003553 0.000481 0.003049 0.003664 0.000315 0.003008 0.003368 0.000269 0.001453 0.000682 0.003290 0.003867 0.003855 0.001310 0.001355 0.003301 0.000616 0.001667 0.002171 0.002701 0.003661 0.002317 0.002230 0.002738 0.002668 0.000107 0.002567 0.003195 0.003644 0.002880 0.001392 0.000964 0.000245 0.002500 0.002378 0.000096 0.000762 0.001373 0.002193 0.000465 0.001273 0.000432 0.000611
D-S,S-S,S-S 0.000578 0.001488 0.002772 0.001508 0.000911 0.000844 0.000413 0.001784 0.003236 0.000748 0.002950 0.000516 0.003213 0.003316 0.003847 0.003600 0.000701 0.000176 0.001195 0.003809 0.001876 0.003863 0.003564 0.002164 0.000058 0.003626 0.000544 0.003620 0.002379 0.002361 0.003301 0.002144 0.000065 0.001728 0.000449 0.000867 0.002769 0.001072 0.003417 0.003506 0.002044 0.002512 0.003265 0.000472 0.001107 0.002357 0.002845 0.001731 0.002907 0.000362 0.003821 0.001588 0.003154 0.002084 0.002256 0.003116 0.002836 0.002808 0.001933 0.000711 0.001224 0.001899 0.001208 0.003591 0.001934 0.002364 0.001790 0.002724 0.001043 0.002424 0.003284 0.002598 0.002053 0.002164 0.003274 0.003810 0.001323 0.003884 0.003582 0.002632 0.001720 0.002582 0.003737 0.001596 0.001399 0.000745 0.002959 0.003837 0.000057 0.003736 0.000873 0.001482 0.001945 0.001682 0.003701 0.003827 0.002811 0.000535 0.001306 0.002702 0.000765 0.001633 0.000875 0.001093 0.002262 0.000476 0.002720 0.002787 0.002066 0.003536 0.003883 0.003668 0.002065 0.002583 0.003048 0.003041 0.000889 0.002021 0.001012 0.000658 0.000166 0.001052 0.001365 0.003375 0.001949 0.002878 0.000806 0.000678 0.000550 0.002144 0.000286 0.001743 0.000082 0.003756 0.001707 0.001864 0.002009 0.002206 0.002295 0.001839 0.003825 0.001423 0.002419 0.002945 0.000744 0.002831 0.001151 0.002020 0.000393 0.000459 0.000889 0.001802 0.002690 0.002362 0.000973 0.000990 0.003767 0.003554 0.000692 0.002660 0.002172 0.002825 0.002447 0.002703 0.002925 0.000375 0.002945 0.001215 0.003873 0.003703 0.002734 0.001856 0.001464 0.002773 0.003393 0.000391 0.001886 0.002504 0.001949 0.003620 0.002067 0.001528 0.002829 0.000231 0.001509 0.002392 0.000164 0.003855 0.000231 0.002856 0.002888 0.000752 0.000750 0.001240 0.000710 0.000998 0.001260 0.001464 0.003337 0.003480 0.003398 0.003621 0.003296 0.003758 0.001890 0.001987 0.002591 0.001441 0.001998 0.001460 0.002350 0.001713 0.000973 0.002591 0.000756 0.003208 0.001964 0.000079 0.003400 0.000593 0.002222 0.000896 0.002974 0.002595 0.002447 0.002727 0.002172 0.002524 0.000167 0.003336 0.002991 0.000456 0.000718 0.002220 0.003209 0.000510 0.001081 0.000643 0.001948 0.002884 0.001398 0.003383 0.002703 0.000358 0.000887 0.002541 0.002697 0.003517 0.001694 0.001168 0.000462 0.003552 0.002163 0.003093 0.000476 0.002176
D-D 0.003968 0.000620 0.001783 0.003731 0.006193 0.002286 0.004541 0.004500 0.006101 0.001962 0.003262 0.000426 0.026907 0.012862 0.007678 0.007540 0.034749 0.003545 0.004373 0.001513 0.006844 0.008131 0.003607 0.005612 0.003350 0.002768 0.007517 0.005828 0.008440 0.001909 0.002728 0.008125 0.007073 0.003758 0.003259 0.001904 0.006679 0.001391 0.004077 0.003507 0.004813 0.003045 0.003063 0.004930 0.002250 0.001526 0.000795 0.001446 0.002066 0.001945 0.013764 0.002050 0.002090 0.013464 0.003517 0.012164 0.000876 0.007402 0.001511 0.002274 0.012856 0.000221 0.002587 0.010173 -0.000045 0.009910 0.004104 0.003500 0.007393 0.004499 0.002212 0.002008 0.005062 0.003303 0.004988 0.005751 0.028488 0.005226 0.019041 0.001040 0.002582 0.012639 0.000694 0.005606 0.001804 0.004817 0.006712 0.001306 0.005234 0.004122 0.003128 0.007048 0.002567 0.001862 0.003299 0.005067 0.003995 0.001289 0.004754 0.003345 0.024387 0.001976 0.003762 0.004403 0.003374 0.006231 0.002425 0.004120 0.021410 0.000946 0.003000 0.004402 0.002867 0.003023 0.002671 0.003019 0.002509 0.003362 0.001548 0.007087 0.001919 0.002597 0.000141 0.002596 0.008666 0.004540 0.003417 0.001488 0.001882 0.002079 0.001741 0.010434 0.000584 0.004672 0.004145 0.003825 0.005145 0.004710 0.006473 0.007544 0.004989 0.002790 0.002347 0.003361 0.003649 0.019191 0.002269 0.011040 0.001119 0.000711 0.010538 0.008155 0.008725 0.004225 0.003238 0.002974 0.017297 0.001738 0.004719 0.004778 0.003371 0.006469 0.002208 0.001278 0.009126 0.002533 0.002074 0.003242 0.001774 0.003797 0.009859 0.001391 0.001621 0.006995 0.003606 0.002007 0.003732 0.001398 0.001003 0.001889 0.004548 0.000965 0.003535 0.001183 0.006455 0.004367 0.004536 0.004494 0.004280 0.003471 0.002629 0.002021 0.002798 0.002849 0.003224 0.000295 0.004895 0.002304 0.002389 0.002688 0.001215 0.002771 0.002062 0.015911 0.004123 0.005925 0.002628 0.005186 0.001602 0.003449 0.007683 0.003816 0.002131 0.002448 0.003053 0.002039 0.003715 0.001596 0.002950 0.005155 0.001722 0.001559 0.005329 0.001436 0.011671 0.005486 0.003760 0.001409 0.001254 0.005409 0.005509 0.001410 0.003511 0.005850 0.005759 0.002195 0.001730 0.001641 0.008559 0.003884 0.006306 0.003570 0.001980 0.011295 0.001515 0.004652 0.008284 0.002088 0.008125 0.005653 0.002171 0.000062 0.001089 0.012891 0.003372 0.012034
D-D,D-I 0.002512 0.003980 0.002257 0.001292 0.002901 0.001677 0.001153 0.002637 0.003075 0.002963 0.003813 0.000609 0.010960 0.003433 0.003760 0.004859 0.000622 0.003177 0.002144 0.002509 0.002481 0.001978 0.002533 0.003551 0.003819 0.001784 0.002852 0.001500 0.005357 0.002448 0.000977 0.001735 0.000293 0.000324 0.003522 0.001321 0.004302 0.001554 0.000839 0.003347 0.002103 0.001093 0.002592 0.003617 0.002442 0.001200 0.001113 0.000994 0.002645 0.002526 0.001185 0.001428 0.000561 0.005272 0.001751 0.004261 0.003090 0.003766 0.001657 0.001873 0.004026 0.001961 0.000900 0.003016 0.001586 0.002527 0.004224 0.001600 0.002457 0.004866 0.003719 0.002108 0.002340 0.002475 0.004994 0.003519 -0.000090 0.004015 0.007321 0.001175 0.002881 0.003998 0.002816 0.003122 0.000690 0.001656 0.003091 0.001353 0.005117 0.003343 0.000655 0.001978 0.000841 0.000437 0.003848 0.002830 0.003452 0.001351 0.001488 0.001374 0.008535 0.001899 0.003678 0.002657 0.001680 0.004747 0.003532 0.004620 0.008174 0.001242 0.001206 0.000414 0.003187 0.003378 0.003233 0.001506 0.000562 0.004227 0.000219 0.002472 0.003895 0.000424 0.001152 0.001939 0.003463 0.003801 0.002393 0.002245 0.001567 0.000516 0.003443 0.003387 0.001434 0.002424 0.001045 0.002809 0.001420 0.004031 0.001902 0.003100 0.003173 0.002451 0.001470 0.000583 0.002488 0.006397 0.002877 0.004581 0.001148 0.003049 0.005381 0.003878 0.002044 0.005603 0.001733 0.001347 0.005049 0.002678 0.003961 0.001652 0.002625 0.004731 0.002928 0.003888 0.002898 0.001993 0.003603 0.002722 0.000186 0.001242 0.004735 0.001310 0.003591 0.000852 0.001553 0.003111 0.003155 0.002380 0.001245 0.000493 0.003891 0.003129 0.002381 0.003408 0.002360 0.001913 0.001483 0.003052 0.003280 0.002466 0.002415 0.000558 0.003758 0.002700 0.002371 0.002795 0.001576 0.001627 0.003514 0.003805 0.001531 0.002024 0.003201 0.006496 0.002423 0.003094 0.001094 0.004374 0.002954 0.002322 0.004264 0.002929 0.003304 0.000695 0.003322 0.003911 0.003516 0.002590 0.003978 0.004240 0.000862 0.003783 0.001214 0.002450 0.005600 0.002537 0.000132 0.004238 0.002315 0.002119 0.001276 0.001220 0.003339 0.001543 0.000414 0.001759 0.003625 0.003723 0.002304 0.000666 0.002466 0.001921 0.002332 -0.000818 0.001480 0.002046 0.003042 0.001169 0.002475 0.002451 0.002325 0.002759 0.000134 0.003675 0.003634 0.004328
D-D,D-I,I-I 0.001492 0.003866 0.003358 0.002328 0.000694 0.000733 0.002765 0.003524 0.001875 0.002074 0.003091 0.002933 0.003405 0.003811 0.001402 0.000629 0.003902 0.003201 0.002851 0.002054 0.003391 0.003027 0.002074 0.001417 0.000919 0.001254 0.003303 0.002829 0.000193 0.003526 0.000201 0.000989 0.001826 0.002046 0.000295 0.003765 0.000844 0.000453 0.003884 0.003133 0.003617 0.003313 0.003480 0.003584 0.003519 0.000704 0.000280 0.001789 0.000140 0.002430 0.001818 0.001569 0.001530 0.000278 0.000913 0.002757 0.003365 0.003718 0.002972 0.001577 0.003485 0.000970 0.001433 0.001449 0.000983 0.002411 0.000967 0.000664 0.000287 0.001373 0.000486 0.000898 0.003663 0.000784 0.002709 0.000234 0.003138 0.000791 0.003551 0.003363 0.002801 0.001195 0.003455 0.002417 0.003074 0.002547 0.002236 0.001615 0.000677 0.002274 0.002939 0.000142 0.000497 0.002223 0.001564 0.003861 0.002545 0.001321 0.001608 0.002554 0.002179 0.002888 0.002846 0.000999 0.002359 0.003826 0.001093 0.001031 0.000871 0.003794 0.000906 0.002027 0.002523 0.000241 0.003375 0.001963 0.000040 0.000252 0.000157 0.002167 0.001774 0.002904 0.000072 0.003511 0.002228 0.003455 0.002256 0.000146 0.002092 0.003459 0.002357 0.003539 0.002468 0.000168 0.001637 0.001398 0.001163 0.001294 0.003745 0.000881 0.003037 0.000228 0.000600 0.000985 0.003638 0.001458 0.000748 0.000330 0.001969 0.001441 0.001590 0.003778 0.002060 0.003815 0.002364 0.002932 0.002507 0.001405 0.002429 0.000149 0.001080 0.003242 0.001581 0.003728 0.000172 0.003662 0.001609 0.003275 0.003255 0.000061 0.001898 0.001422 0.001717 0.000476 0.000551 0.001937 0.000002 0.002283 0.003320 0.000050 0.003855 0.000260 0.003709 0.003267 0.002681 0.001939 0.002146 0.002956 0.002559 0.002974 0.002264 0.002088 0.002674 0.000135 0.003007 0.002802 0.001590 0.002347 0.001717 0.001829 0.001727 0.000953 0.001541 0.000594 0.003526 0.001825 0.000178 0.000003 0.001712 0.003046 0.001680 0.001834 0.000819 0.002692 0.003037 0.002039 0.003898 0.003143 0.000016 0.002355 0.002569 0.002624 0.000617 0.001948 0.003856 0.003723 0.001788 0.002355 0.000685 0.000175 0.002522 0.002786 0.002310 0.001509 0.002059 0.003480 0.002322 0.001916 0.003750 0.001473 0.001370 0.000800 0.003444 0.002331 0.002592 0.003889 0.002150 0.001099 0.003784 0.002009 0.002861 0.003595 0.002173 0.000284 0.003203 0.003750
D-D,D-S 0.004217 0.002807 0.000860 0.001790 0.002225 0.001453 0.004540 -0.000173 0.003427 0.002175 0.001405 0.000121 0.006122 0.003351 0.002460 0.000113 0.013332 0.002093 -0.000004 0.001862 0.003375 0.001611 0.003458 0.005175 0.003303 0.001208 0.001830 0.004005 0.002942 -0.000112 0.000466 0.005431 0.005152 0.000699 0.003080 0.001259 0.000537 0.001879 0.000378 0.002014 0.003171 0.001700 0.003400 0.000646 0.003941 0.003825 0.000910 0.001632 0.002854 0.000846 0.006634 0.003529 0.003719 0.005485 0.001876 0.004677 0.001865 0.001556 0.002827 0.003739 0.002863 0.001453 0.003661 0.004415 0.001169 0.002108 0.002822 0.002659 0.001886 0.003700 0.002164 0.001499 0.001009 0.000982 0.001891 0.005213 0.011117 0.003938 0.006088 0.003667 0.003651 0.006033 0.000913 0.002403 0.003882 0.004074 0.003322 0.002399 0.003538 0.001311 0.001325 0.003062 0.001560 0.002025 0.001615 0.003134 0.002627 0.003134 0.000670 0.002374 0.004182 0.000450 0.001772 0.004325 0.000988 0.004158 0.001971 0.002119 0.006247 0.003340 0.003511 0.003209 0.002238 0.004213 0.001498 0.002359 0.003597 0.003220 0.001521 0.004416 0.003399 0.002577 0.000488 0.001918 0.004988 0.002261 0.002930 0.003879 0.003968 0.003296 0.002432 0.002387 0.001597 0.001109 0.001702 0.003859 0.002133 0.002455 0.003041 0.002103 0.002189 0.001421 -0.000100 -0.000115 0.002573 0.003259 0.000479 0.002385 0.002883 0.001672 0.004621 0.003573 0.003145 0.001758 0.001627 0.000052 0.004632 0.002591 0.001497 0.002827 0.002133 0.000088 0.003797 0.003684 0.005302 0.001220 0.000163 0.002947 0.003637 0.003558 0.001096 0.003431 0.002559 0.003090 0.001809 0.002149 0.002927 0.000533 0.002853 0.002616 0.003077 0.003369 0.002371 0.003371 0.004204 0.001278 0.000313 0.003666 0.003436 0.001350 0.003359 0.003293 0.003201 0.002411 0.000677 0.002326 0.004221 0.002754 0.003641 0.001782 0.000978 0.003842 0.002226 0.006844 0.002290 0.005593 0.001200 0.000389 0.000907 0.002190 0.003792 0.002052 0.003299 0.001125 0.003543 0.001062 0.002751 0.003547 0.000225 0.004497 0.000680 0.002462 0.003757 0.003020 0.004892 0.003073 0.002205 0.000925 0.000172 0.001094 0.004455 0.002722 0.000418 0.003606 0.004588 0.001999 0.002717 0.001309 0.002675 0.000732 0.004110 0.003460 0.003099 0.004246 0.001432 0.000541 0.003058 0.003287 0.006199 0.003400 0.003425 0.002564 0.003775 0.006755 0.001965 0.002624
D-D,D-S,S-S 0.002476 0.001439 0.001956 0.000737 0.001499 0.002329 0.002316 0.003886 0.001320 0.000421 0.002023 0.003632 0.002382 0.003612 0.001724 0.003262 0.000984 0.002597 0.003592 0.001480 0.000030 0.003769 0.001274 0.000019 0.003775 0.002619 0.002736 0.003547 0.002129 0.001844 0.000625 0.002259 0.001843 0.002072 0.001352 0.001629 0.001267 0.001594 0.001188 0.001802 0.000153 0.003890 0.002028 0.001224 0.002091 0.000678 0.001271 0.001004 0.000533 0.002677 0.003620 0.003457 0.002139 0.003760 0.002038 0.001837 0.001945 0.001349 0.001298 0.000937 0.002842 0.001449 0.001614 0.002507 0.003039 0.001448 0.002028 0.002248 0.003210 0.000245 0.001242 0.002516 0.002470 0.002258 0.002544 0.001929 0.000263 0.002256 0.003342 0.000783 0.002353 0.002772 0.000150 0.001632 0.003062 0.000327 0.000388 0.003381 0.000728 0.003466 0.002473 0.003651 0.000372 0.000831 0.002042 0.003339 0.002554 0.003581 0.002051 0.002426 0.001033 0.000129 0.002687 0.000466 0.002592 0.002195 0.003289 0.000557 0.003449 0.002062 0.000777 0.000990 0.001422 0.001233 0.003407 0.000984 0.002220 0.003878 0.000493 0.001640 0.002131 0.002114 0.000196 0.001259 0.003094 0.001799 0.001831 0.000618 0.001388 0.002624 0.003018 0.003558 0.000812 0.000725 0.000617 0.000379 0.002191 0.000435 0.002271 0.002300 0.000259 0.001111 0.001339 0.000707 0.002589 0.001908 0.000362 0.002664 0.001349 0.001113 0.001263 0.000200 0.000585 0.001633 0.001277 0.003469 0.003842 0.001199 0.001105 0.003542 0.001887 0.003601 0.001940 0.001289 0.002408 0.002169 0.003344 0.000385 0.003404 0.000336 0.003086 0.002863 0.001064 0.002000 0.000606 0.003680 0.001105 0.002418 0.003057 0.003783 0.002558 0.003096 0.002520 0.003165 0.002073 0.003888 0.002961 0.000703 0.001125 0.000957 0.000534 0.002638 0.001891 0.001330 0.002149 0.001839 0.003250 0.003114 0.001766 0.001458 0.003394 0.003578 0.003146 0.000060 0.002904 0.002125 0.002794 0.003391 0.002873 0.000027 0.001300 0.000722 0.000648 0.001439 0.001858 0.002935 0.001098 0.002271 0.002324 0.002878 0.003216 0.002337 0.000295 0.002975 0.000597 0.002346 0.003854 0.001408 0.000368 0.001467 0.001271 0.003778 0.002037 0.002782 0.002140 0.003591 0.002822 0.002164 0.002666 0.000453 0.003646 0.002505 0.003156 0.003632 0.003654 0.003723 0.001118 0.003318 0.000805 0.002334 0.000644 0.001609 0.003706 0.001703 0.003809 0.000383
D-P 0.004007 0.003856 0.002355 0.003100 0.002916 0.001894 0.000881 0.003188 0.002984 0.000920 0.001150 0.003949 0.008258 0.002955 0.003550 0.002144 0.002893 0.000605 0.001010 0.002911 0.001668 0.001901 0.002495 0.001351 0.000059 0.000735 0.001479 0.004478 0.004693 0.001160 0.000302 0.002478 0.001789 0.000519 0.001018 0.002966 0.002166 0.001197 0.001945 0.003509 0.002775 0.002506 0.000724 0.003340 0.000777 0.000705 0.000191 0.002970 0.001862 0.001297 0.002983 0.000208 0.001104 0.002179 0.000139 0.002973 0.001742 0.002910 0.003308 0.000434 0.004953 0.001929 0.003069 0.002570 0.000675 0.004740 0.002122 0.002992 0.003345 0.002237 0.000251 0.003137 0.001610 0.001426 0.004106 0.003252 0.004318 0.000828 0.006856 0.003225 0.002560 0.001481 0.002145 0.003461 0.003706 0.002776 0.003192 0.000689 0.003078 0.002298 0.000247 0.002435 0.003527 0.003465 0.003751 0.000507 0.002721 0.004089 0.000724 0.003805 0.004553 0.001058 0.003304 0.003394 0.002274 0.001667 0.001078 0.003019 0.006849 0.003487 0.000490 0.002345 0.004057 0.002391 0.003084 0.003496 0.002419 0.003880 0.003486 0.004033 0.003656 0.002352 0.002635 0.000467 0.004166 0.001510 0.003284 0.003085 0.001974 0.003140 0.001781 0.003280 0.000444 0.001821 0.002797 0.003269 0.001133 0.003668 0.002770 0.003412 0.003573 0.001518 0.002103 0.001063 0.003786 0.003026 0.001938 0.002548 0.002459 0.000414 0.003886 0.001921 0.001667 0.003966 0.000817 0.000598 0.005384 0.000386 0.001830 0.000626 0.004092 0.001196 0.002604 0.003363 0.000457 0.002769 0.002868 0.003441 0.002631 0.003151 0.002254 0.002193 0.001093 0.003439 0.001326 0.003767 0.002145 0.001273 0.003867 0.002813 0.002519 0.003368 0.003277 0.001668 0.002619 0.001357 0.003184 0.003639 0.002943 0.001606 0.003824 0.001806 0.002175 0.003377 0.001413 0.003260 0.000831 0.002055 0.000568 0.001799 0.003379 0.002048 0.001483 0.005862 0.003528 0.000400 0.000098 0.001204 0.002415 0.000005 0.005055 0.000281 0.003162 0.001868 0.000273 0.001478 0.001142 0.002415 0.003494 0.003344 0.002095 0.003307 0.003333 0.001081 0.004766 0.003520 0.000054 0.000693 0.001298 0.000725 0.000258 0.002000 0.001078 0.002258 0.000685 0.003192 0.000317 0.000790 0.002107 0.003805 0.002396 0.003249 0.002471 0.003037 0.002740 0.001636 0.004209 0.003709 0.003638 0.000763 0.001326 0.002196 0.000808 0.000636 0.002353 0.002831
D-P,P-P 0.003324 0.001315 0.002436 0.003735 0.002431 0.003038 0.002420 0.002734 0.003495 0.003530 0.001521 0.002233 0.006395 0.005559 0.002316 0.003437 0.000105 0.003308 0.003428 0.001597 0.003183 0.001639 0.003483 0.000366 0.003395 0.001081 0.004667 0.002906 0.002542 0.002402 0.002333 0.004397 0.002008 0.002585 0.001369 0.002664 0.002227 0.003138 0.002104 0.003470 0.001501 0.001798 0.003369 0.003492 0.001204 0.001881 0.001888 0.003083 0.003802 0.001209 0.001334 0.003226 0.003319 0.003946 0.001745 0.003053 0.003673 0.003714 0.000338 0.001148 0.003642 0.000460 0.001333 0.002906 0.003622 0.005070 0.004246 0.000901 0.002510 0.003752 0.002420 0.002838 0.003562 0.003503 0.001854 0.002223 0.001865 0.000229 0.005674 0.003064 0.000572 0.001081 0.003593 0.000823 0.001605 0.003291 0.004346 0.002923 0.003003 0.002335 0.001069 0.002137 0.001421 0.002385 0.001218 0.001847 0.002737 0.001773 0.000714 0.000720 0.005507 0.001480 0.001899 0.003216 0.001463 0.003591 0.000316 0.001500 0.004694 0.002905 0.001790 0.002895 0.002862 0.001743 0.002768 0.001796 0.000835 0.001626 0.001449 0.002369 0.001088 0.000784 0.002602 0.002046 0.003117 0.000253 0.000866 0.001751 0.000261 0.000819 0.001045 0.002533 0.001058 0.002051 0.002453 0.000466 0.002498 0.001344 0.003436 0.002491 0.003917 0.001713 0.001201 0.001488 0.003315 0.007106 0.002394 0.002824 0.001668 0.003067 0.002233 0.001542 0.000217 0.002600 0.003487 0.001476 0.005597 0.002609 0.001989 0.004114 0.001728 0.003257 0.003441 0.001783 0.000379 0.003681 0.002321 0.002394 0.003635 0.002913 0.002136 0.002726 0.001544 0.001779 0.003659 0.002765 0.002644 0.001650 0.001232 0.001700 0.002939 0.002055 0.001556 0.002057 0.002647 0.003335 0.000568 0.002786 0.004439 0.002572 0.000852 0.000058 0.001905 0.000205 0.002071 0.000606 0.002540 0.002098 0.002978 0.003543 0.002442 0.003383 0.002468 0.006214 0.002434 0.002856 0.003213 0.003651 0.000364 0.001152 0.003798 0.003286 0.004175 0.001699 0.000926 0.002940 0.002054 0.000937 0.002325 0.002911 0.003586 0.001716 0.001858 0.003292 0.004549 0.003095 0.000676 0.000580 0.001748 0.002093 0.000671 0.000045 0.000438 0.000127 0.002875 0.000323 0.002539 0.000042 0.002009 0.003393 0.002420 0.003276 0.001744 0.005081 0.001259 0.000719 0.003962 0.000433 0.001590 0.003566 0.001307 0.003186 0.001464 0.002595 0.003113 0.002454
D-P,P-P,P-P 0.001792 0.001267 0.001900 0.002920 0.000687 0.000896 0.000318 0.000361 0.000406 0.002518 0.002638 0.000753 0.002373 0.003251 0.002665 0.001668 0.002756 0.003707 0.003866 0.002435 0.002930 0.001253 0.002094 0.002485 0.000916 0.002645 0.003469 0.000248 0.001961 0.001333 0.001653 0.002567 0.003327 0.002758 0.001867 0.002624 0.000364 0.003726 0.002356 0.003656 0.003663 0.002002 0.000155 0.001939 0.001249 0.001418 0.001972 0.001133 0.003446 0.000617 0.001029 0.002016 0.002319 0.000949 0.002148 0.001978 0.002667 0.003096 0.002943 0.000230 0.003268 0.000869 0.003526 0.001524 0.000310 0.002124 0.001654 0.000075 0.002279 0.003299 0.002844 0.002749 0.001627 0.003495 0.000071 0.001738 0.003329 0.001158 0.000261 0.000427 0.001660 0.001392 0.001098 0.003795 0.002365 0.000125 0.002913 0.001632 0.001279 0.002605 0.000523 0.003862 0.001963 0.000080 0.001611 0.002995 0.002877 0.001773 0.002029 0.003029 0.000568 0.000547 0.003743 0.003762 0.001447 0.000544 0.000273 0.001615 0.002560 0.001201 0.000385 0.001335 0.003000 0.001196 0.001389 0.000175 0.001815 0.002330 0.000492 0.001198 0.001833 0.001831 0.002529 0.000002 0.003175 0.001598 0.003144 0.000001 0.000573 0.000727 0.002248 0.001415 0.002772 0.001230 0.002304 0.003126 0.001381 0.001201 0.001396 0.000474 0.003360 0.000431 0.002834 0.002771 0.003594 0.001739 0.000554 0.000706 0.002166 0.003562 0.001695 0.003510 0.001578 0.002885 0.001249 0.000123 0.000476 0.003816 0.001467 0.000804 0.002125 0.003290 0.002806 0.003742 0.001871 0.002193 0.002189 0.003244 0.002924 0.002655 0.002189 0.000148 0.003040 0.003088 0.003657 0.001032 0.000966 0.000667 0.000436 0.003736 0.001456 0.001702 0.001975 0.002449 0.003709 0.002190 0.003904 0.003637 0.000483 0.002960 0.002184 0.002447 0.003712 0.003488 0.001553 0.003039 0.002606 0.003140 0.003828 0.002003 0.001189 0.003052 0.001172 0.001411 0.002185 0.001668 0.002975 0.003465 0.000037 0.002422 0.001334 0.000697 0.000917 0.000357 0.003693 0.003161 0.002587 0.003364 0.000616 0.002476 0.001799 0.000528 0.003603 0.002097 0.001665 0.001375 0.003119 0.001460 0.001044 0.002801 0.001811 0.003843 0.000124 0.003875 0.000288 0.003751 0.001932 0.002450 0.003480 0.001441 0.003549 0.000690 0.001981 0.002178 0.001282 0.002564 0.002638 0.002337 0.000618 0.001529 0.000757 0.002669 0.001987 0.002521 0.000033 0.002517
D-D,D-D 0.002173 0.002964 0.003587 0.001403 0.002645 0.003810 0.003847 0.001090 0.001277 0.003258 0.000420 0.001407 0.004946 0.003049 0.002505 0.003093 0.004068 0.000824 0.000182 0.002463 0.003420 0.000807 0.002910 0.001132 0.000586 0.000229 0.002210 0.003861 0.002414 0.002194 0.002548 0.004668 0.001125 0.001278 0.003553 0.000405 0.001212 0.003607 0.001156 0.001739 0.002095 0.002865 0.002005 0.002819 0.003898 0.001972 0.002123 0.000820 0.000923 0.001237 0.004878 0.001445 0.000366 0.004631 0.001519 0.003787 0.002178 0.002182 0.001529 0.000615 0.001702 0.003792 0.003446 0.003242 0.001966 0.004040 0.001904 0.002862 0.000726 0.000591 0.003192 0.001637 0.000345 0.000687 0.003833 0.000831 0.004835 0.002889 0.006039 0.001408 0.001687 0.002741 0.003210 0.003407 0.000566 0.000410 0.001824 0.003792 0.002183 0.001351 0.002157 0.003132 0.000704 0.000586 0.002512 0.001690 0.004058 0.002099 0.002224 0.000323 0.003429 0.001652 0.000875 0.001258 0.000939 0.002784 0.003628 0.003418 0.003206 0.003818 0.003299 0.003770 0.002267 0.000946 0.000334 0.002349 0.000299 0.000808 0.001177 0.001755 0.002070 0.003419 0.003450 0.002971 0.002580 0.000808 0.003497 0.000044 0.003861 0.003429 0.002551 0.003986 0.001602 0.002941 0.000826 0.001742 0.001236 0.001615 0.003034 0.002406 0.002096 0.001200 0.003831 0.002129 0.001412 0.005386 0.001862 0.004279 0.003338 0.002103 0.003511 0.003828 0.002611 0.000539 0.003398 0.003714 0.001991 0.002796 0.004207 0.001765 0.003652 0.002392 0.001435 0.002744 0.002506 0.003132 0.002606 0.001804 0.001058 0.002526 0.004627 0.002980 0.003550 0.001384 0.003191 0.003680 0.001012 0.000069 0.001660 0.000180 0.000515 0.002436 0.001383 0.003127 0.000779 0.003417 0.002069 0.003801 0.001009 0.001044 0.002530 0.002518 0.002177 0.001403 0.001457 0.001134 0.001079 0.003613 0.002666 0.000840 0.002894 0.000539 0.000799 0.003220 0.002657 0.003090 0.002886 0.000522 0.001991 0.000455 0.002029 0.002662 0.002454 0.001731 0.001998 0.002405 0.000223 0.000407 0.000393 0.001562 0.000064 0.002963 0.001152 0.002556 0.003639 0.001961 0.002824 0.001505 0.002079 0.002541 0.002273 0.002662 0.001165 0.002941 0.000724 0.001538 0.000428 0.003318 0.001770 0.000499 0.002187 0.001551 0.001194 0.004582 0.002160 0.002916 0.004179 0.002234 0.004589 0.001962 0.000398 0.003115 0.000100 0.002820 0.001183 0.005053
D-D,D-D,D-I 0.001356 0.003093 0.003474 0.001729 0.000924 0.003709 0.002693 0.002856 0.002787 0.003568 0.003902 0.000896 0.001516 0.001760 0.000193 0.001598 0.002003 0.001844 0.003244 0.001551 0.001709 0.003352 0.000747 0.002475 0.001984 0.001996 0.002267 0.001594 0.001299 0.000291 0.003671 0.001138 0.003296 0.001963 0.000162 0.000601 0.001061 0.003507 0.001789 0.001945 0.000271 0.001051 0.001465 0.003310 0.003159 0.003189 0.003219 0.001043 0.001023 0.000720 0.001906 0.000308 0.001399 0.003686 0.002674 0.002568 0.001742 0.000933 0.003295 0.000176 0.002109 0.003694 0.002046 0.000926 0.001245 0.000209 0.001977 0.002543 0.002552 0.001331 0.001802 0.001660 0.002008 0.001197 0.000773 0.002285 0.003701 0.003590 0.003263 0.003328 0.000962 0.002720 0.001051 0.001878 0.001499 0.001442 0.003295 0.001763 0.000789 0.003185 0.003614 0.001747 0.000952 0.000428 0.001279 0.003206 0.001084 0.000520 0.002336 0.002318 0.003622 0.002052 0.002438 0.002419 0.001293 0.000098 0.000819 0.001830 0.001893 0.001541 0.002814 0.002509 0.000067 0.000238 0.000060 0.003208 0.000906 0.003437 0.003743 0.002833 0.002266 0.002635 0.000514 0.000296 0.003024 0.003395 0.002437 0.000987 0.000296 0.001369 0.001772 0.003303 0.002585 0.000786 0.003653 0.002525 0.001335 0.001908 0.003856 0.003857 0.000135 0.001177 0.001563 0.000365 0.002212 0.003476 0.000227 0.001396 0.002362 0.001329 0.001890 0.002150 0.003773 0.000359 0.002127 0.002635 0.002549 0.003058 0.001197 0.001181 0.001970 0.000978 0.002626 0.000692 0.000215 0.001623 0.000607 0.000692 0.002670 0.001715 0.003544 0.000740 0.001680 0.000904 0.003012 0.002509 0.003714 0.002610 0.001932 0.002150 0.002808 0.003495 0.003167 0.000115 0.000712 0.002663 0.002480 0.002403 0.003015 0.003059 0.003652 0.002202 0.000448 0.003796 0.001371 0.002139 0.000687 0.000778 0.002221 0.003342 0.000535 0.000486 0.001411 0.000334 0.003734 0.001079 0.000953 0.002545 0.003842 0.001205 0.000884 0.000733 0.000562 0.002661 0.001246 0.002745 0.001245 0.003267 0.001862 0.002468 0.002132 0.003520 0.001987 0.002978 0.000614 0.000527 0.002043 0.003717 0.003233 0.002862 0.003475 0.001864 0.000354 0.000262 0.002287 0.000392 0.002334 0.001993 0.003045 0.002961 0.003826 0.002297 0.002398 0.001387 0.003442 0.001805 0.001095 0.003074 0.003759 0.003529 0.002455 0.000046 0.000218 0.000718 0.001421 0.000432
D-D,D-D,D-S 0.002974 0.003237 0.000910 0.002498 0.002083 0.003198 0.000230 0.003765 0.001290 0.003247 0.001771 0.001035 0.003748 0.001149 0.000463 0.003367 0.001470 0.003749 0.000569 0.002478 0.001461 0.000329 0.002189 0.001466 0.001457 0.003050 0.003701 0.001935 0.001415 0.002853 0.003732 0.001206 0.003244 0.002928 0.003110 0.002254 0.000770 0.000686 0.001961 0.000840 0.001330 0.003609 0.002710 0.000042 0.003775 0.001407 0.003893 0.003202 0.000348 0.001535 0.002236 0.001756 0.003787 0.001322 0.001641 0.003487 0.001208 0.001358 0.000446 0.001697 0.003894 0.001428 0.003410 0.000966 0.002664 0.000201 0.001000 0.001706 0.001201 0.003337 0.003018 0.002034 0.003192 0.003548 0.000764 0.001118 0.003672 0.002273 0.003050 0.000331 0.003071 0.003079 0.002580 0.003112 0.001327 0.000704 0.003144 0.002866 0.001094 0.000594 0.001637 0.002073 0.000658 0.000553 0.002176 0.001116 0.000493 0.001562 0.000094 0.001274 0.000665 0.001254 0.001486 0.000729 0.002194 0.001476 0.002600 0.001325 0.001946 0.001897 0.000272 0.000662 0.002284 0.003283 0.002010 0.000510 0.000273 0.002599 0.001222 0.002379 0.002948 0.003889 0.002024 0.003453 0.001938 0.003071 0.003572 0.003511 0.000597 0.000579 0.001774 0.000067 0.001871 0.002791 0.001256 0.003887 0.002994 0.002188 0.002636 0.003082 0.001304 0.002212 0.000082 0.002652 0.001824 0.003007 0.000187 0.002537 0.001470 0.002946 0.003784 0.002077 0.000899 0.000685 0.001483 0.003371 0.000259 0.000005 0.000348 0.000649 0.003649 0.002694 0.000931 0.001142 0.000669 0.000102 0.001413 0.001949 0.000857 0.003476 0.000717 0.000130 0.001998 0.002727 0.000427 0.000155 0.000751 0.001674 0.000497 0.001427 0.001618 0.002021 0.000501 0.003773 0.002904 0.002538 0.003109 0.001620 0.000130 0.003463 0.003211 0.000926 0.002320 0.001757 0.002865 0.000417 0.003751 0.003753 0.003538 0.000720 0.001972 0.002041 0.001636 0.002059 0.003731 0.000372 0.001573 0.002433 0.000391 0.000482 0.001745 0.001839 0.003552 0.002581 0.001486 0.001225 0.001060 0.003509 0.000898 0.002752 0.002786 0.000570 0.002661 0.002939 0.000286 0.003686 0.000900 0.000374 0.002389 0.000827 0.000217 0.001819 0.002790 0.001115 0.002761 0.000143 0.003361 0.002840 0.002876 0.002490 0.000142 0.002263 0.003191 0.003378 0.000617 0.000810 0.001516 0.001878 0.002869 0.001159 0.002293 0.002732 0.001196 0.002627 0.001618 0.003381
D-D,D-D,D-D 0.001171 0.000366 0.002672 0.000964 0.000124 0.000836 0.003206 0.003577 0.003585 0.001921 0.003850 0.001371 0.002699 0.003219 0.003459 0.002814 0.001640 0.002613 0.001887 0.001775 0.000627 0.001803 0.002333 0.001288 0.002880 0.002216 0.003682 0.001721 0.003115 0.003378 0.002835 0.003588 0.001309 0.000632 0.001593 0.000568 0.001468 0.000666 0.000691 0.003363 0.003552 0.002826 0.003061 0.000085 0.003299 0.001174 0.001352 0.000121 0.001961 0.002229 0.000459 0.003374 0.000681 0.000892 0.001288 0.001215 0.000830 0.003151 0.002399 0.000014 0.000734 0.001994 0.003136 0.000494 0.002909 0.000592 0.001841 0.000898 0.002581 0.002726 0.000617 0.003367 0.001713 0.002701 0.000577 0.001116 0.003400 0.002583 0.003495 0.000769 0.001109 0.002445 0.002037 0.000013 0.002457 0.001729 0.002676 0.003110 0.003658 0.001903 0.001396 0.002309 0.002220 0.001517 0.002455 0.002801 0.002995 0.003056 0.002672 0.002433 0.003026 0.001366 0.002925 0.003185 0.003351 0.003620 0.003713 0.000205 0.002526 0.001780 0.000868 0.002098 0.000689 0.000687 0.000573 0.002424 0.003477 0.001637 0.000711 0.000952 0.000985 0.001762 0.002180 0.003184 0.001769 0.003453 0.002999 0.002460 0.000839 0.003728 0.000021 0.000871 0.000958 0.001536 0.001547 0.001360 0.003511 0.002575 0.000610 0.001799 0.001731 0.001290 0.001058 0.003699 0.001633 0.001845 0.001401 0.003438 0.000780 0.000545 0.003802 0.001211 0.003856 0.000101 0.003606 0.001909 0.002731 0.001430 0.002902 0.002721 0.000584 0.000095 0.002284 0.001423 0.002508 0.003345 0.000328 0.002447 0.001513 0.001198 0.001696 0.002502 0.000379 0.002356 0.000027 0.002797 0.003516 0.003775 0.000301 0.002094 0.002469 0.001334 0.000913 0.002362 0.000463 0.003823 0.000645 0.002127 0.002905 0.000136 0.001539 0.002259 0.000471 0.001760 0.001174 0.002516 0.002752 0.000397 0.003402 0.003004 0.002331 0.000999 0.001134 0.002957 0.002945 0.002332 0.000047 0.001307 0.000605 0.000348 0.002347 0.003519 0.002957 0.002261 0.000725 0.003626 0.002890 0.001528 0.003543 0.002850 0.002510 0.001189 0.000456 0.000608 0.001383 0.002301 0.003347 0.003388 0.001742 0.001639 0.000838 0.002234 0.003010 0.002826 0.000560 0.003716 0.000782 0.001730 0.003042 0.003545 0.000628 0.001129 0.003497 0.001733 0.003539 0.002319 0.001346 0.003345 0.002704 0.001389 0.003592 0.001663 0.000152 0.001803 0.001582 0.001271
D-D,D-P 0.002716 0.002160 0.002821 0.002635 0.003446 0.001885 0.002006 0.003084 0.002714 0.000977 0.003244 0.002669 0.002819 0.001743 0.001433 0.002048 0.001541 0.003331 0.003072 0.002120 0.000292 0.000970 0.001073 0.000767 0.003441 0.003450 0.001457 0.001422 0.003304 0.001706 0.002618 0.001043 0.000650 0.001303 0.003086 0.003715 0.003318 0.000371 0.002478 0.003903 0.001160 0.002395 0.001165 0.002116 0.003198 0.003062 0.000719 0.001030 0.000319 0.001063 0.003475 0.002548 0.003153 0.003685 0.000089 0.000427 0.001322 0.002214 0.000754 0.000623 0.003895 0.003681 0.003480 0.000529 0.002210 0.002943 0.002207 0.003546 0.000370 0.002564 0.001234 0.000775 0.000161 0.000479 0.000404 0.003062 0.000983 0.003354 0.001859 0.002469 0.001292 0.001904 0.000222 0.000569 0.000706 0.002799 0.000170 0.001009 0.003640 0.000393 0.000302 0.003442 0.003055 0.001081 0.001842 0.001476 0.002239 0.001022 0.003896 0.002445 0.001296 0.002718 0.003692 0.003962 0.002023 0.002342 0.002295 0.000517 0.003471 0.003484 0.000813 0.002848 0.000735 0.002561 0.003343 0.001311 0.001420 0.003709 0.002438 0.000168 0.000738 0.001671 0.000498 0.002337 0.002586 0.001443 0.001599 0.000649 0.003794 0.001964 0.002348 0.001253 0.002648 0.002666 0.002541 0.003790 0.001348 0.001027 0.002168 0.002596 0.003246 0.002476 0.003777 0.000450 0.000955 0.001586 0.003238 0.001690 0.000993 0.002803 0.000975 0.002071 0.001968 0.001255 0.002829 0.000211 0.002205 0.003314 0.001232 0.001558 0.002647 0.000712 0.001435 0.001616 0.001381 0.002288 0.000708 0.002106 0.000732 0.002579 0.003211 0.001469 0.001811 0.002920 0.001822 0.002934 0.003864 0.003356 0.003603 0.002640 0.000322 0.001204 0.001287 0.000619 0.000611 0.001690 0.001129 0.001630 0.000764 0.003184 0.003208 0.001506 0.001373 0.002217 0.003147 0.001095 0.001145 0.000623 0.002059 0.002978 0.001252 0.002465 0.003453 0.002123 0.001890 0.000915 0.001319 0.000211 0.002370 0.001591 0.001462 0.002479 0.002430 0.002303 0.003826 0.000321 0.002466 0.000429 0.001450 0.003414 0.000978 0.002392 0.002569 0.001728 0.003669 0.000822 0.001823 0.000699 0.003604 0.001342 0.000404 0.002079 0.002180 0.003072 0.003430 0.003160 0.002472 0.001450 0.002036 0.001933 0.002424 0.002478 0.000754 0.000742 0.002908 0.002418 0.001982 0.000683 0.001771 0.002528 0.003633 0.002331 0.002949 0.001942 0.000149 0.002160
D-D,D-P,P-P 0.001296 0.000502 0.001277 0.001263 0.003047 0.003322 0.001066 0.003065 0.000961 0.002925 0.003693 0.000979 0.001213 0.003848 0.003683 0.002920 0.000378 0.001482 0.003182 0.000458 0.003236 0.000956 0.000086 0.003799 0.002745 0.002024 0.002011 0.001711 0.003135 0.002062 0.003204 0.000135 0.002927 0.000331 0.003742 0.003847 0.001338 0.002153 0.002626 0.001531 0.000786 0.003255 0.001630 0.003104 0.003860 0.000799 0.001161 0.000648 0.000469 0.003496 0.000559 0.002215 0.003256 0.002003 0.002533 0.000868 0.002423 0.002189 0.003597 0.000190 0.000002 0.002162 0.001498 0.000196 0.003159 0.003110 0.001593 0.003547 0.002100 0.002012 0.001838 0.002651 0.002653 0.001355 0.003465 0.001695 0.000883 0.001767 0.001727 0.003826 0.003840 0.000281 0.001119 0.001242 0.001341 0.003160 0.000967 0.001636 0.000297 0.000346 0.003539 0.003469 0.002967 0.002772 0.003693 0.003570 0.003295 0.000650 0.003150 0.000039 0.003098 0.000373 0.002851 0.003654 0.001473 0.000920 0.002314 0.001132 0.002150 0.000517 0.002052 0.001530 0.000476 0.000066 0.002697 0.001083 0.002697 0.002169 0.002858 0.003090 0.003900 0.000968 0.003786 0.001727 0.001216 0.000933 0.003119 0.002604 0.003057 0.001418 0.001596 0.000087 0.002741 0.003750 0.002792 0.001528 0.000448 0.001793 0.001305 0.003692 0.003103 0.000037 0.001372 0.003710 0.001617 0.000733 0.002032 0.000032 0.001002 0.003726 0.000423 0.001973 0.002110 0.000635 0.001584 0.003071 0.002168 0.002736 0.001778 0.003551 0.002464 0.003278 0.001025 0.003426 0.002092 0.002610 0.000851 0.002277 0.003304 0.001083 0.001915 0.001826 0.000594 0.003106 0.002783 0.000182 0.003548 0.001284 0.000366 0.001729 0.003712 0.000584 0.001835 0.000780 0.001359 0.003001 0.003026 0.002264 0.002257 0.002461 0.003347 0.002465 0.000672 0.002229 0.000719 0.001591 0.002361 0.002599 0.000029 0.000215 0.001070 0.000466 0.002634 0.003193 0.002782 0.003317 0.003905 0.002480 0.001699 0.001086 0.002093 0.000280 0.003166 0.001632 0.003747 0.001950 0.000780 0.002493 0.002426 0.002389 0.001729 0.003080 0.003851 0.003395 0.000894 0.001163 0.003202 0.003721 0.001871 0.002569 0.001856 0.002657 0.001118 0.000219 0.001681 0.000703 0.003171 0.003621 0.000700 0.001625 0.003687 0.002891 0.000414 0.002969 0.002350 0.000443 0.003835 0.003224 0.002308 0.003864 0.003682 0.002418 0.002859 0.002778 0.003422 0.001057
